Language model created by QuickLM on Thu Apr 16 23:16:45 EDT 2020
Copyright (c) 1996-2010 Carnegie Mellon University and Alexander I. Rudnicky

The model is in standard ARPA format, designed by Doug Paul while he was at MITRE.

The code that was used to produce this language model is available in Open Source.
Please visit http://www.speech.cs.cmu.edu/tools/ for more information

The (fixed) discount mass is 0.5. The backoffs are computed using the ratio method.
This model based on a corpus of 6 sentences and 17 words

\data\
ngram 1=17
ngram 2=22
ngram 3=17

\1-grams:
-0.9853 </s> -0.3010
-0.9853 <s> -0.2536
-1.7634 BALL -0.2935
-1.7634 BOOKSHELF -0.2935
-1.7634 BOXES -0.2536
-1.7634 CAN -0.2858
-1.7634 FOR -0.2935
-1.4624 GO -0.2858
-1.7634 ME -0.2536
-1.7634 NAVIGATE -0.2935
-1.7634 OVER -0.2536
-1.7634 READY -0.2536
-1.7634 THANK -0.2858
-1.7634 THE -0.2935
-1.7634 TO -0.2935
-1.7634 WHEEL -0.2536
-1.4624 YOU -0.2452

\2-grams:
-1.0792 <s> CAN 0.0000
-0.7782 <s> GO 0.0000
-1.0792 <s> OVER 0.0000
-1.0792 <s> READY 0.0000
-1.0792 <s> THANK 0.0000
-0.3010 BALL WHEEL 0.0000
-0.3010 BOOKSHELF BALL 0.0000
-0.3010 BOXES </s> -0.3010
-0.3010 CAN YOU -0.1761
-0.3010 FOR ME 0.0000
-0.6021 GO BOXES 0.0000
-0.6021 GO TO 0.0000
-0.3010 ME </s> -0.3010
-0.3010 NAVIGATE FOR 0.0000
-0.3010 OVER </s> -0.3010
-0.3010 READY </s> -0.3010
-0.3010 THANK YOU -0.1761
-0.3010 THE BOOKSHELF 0.0000
-0.3010 TO THE 0.0000
-0.3010 WHEEL </s> -0.3010
-0.6021 YOU </s> -0.3010
-0.6021 YOU NAVIGATE 0.0000

\3-grams:
-0.3010 <s> CAN YOU
-0.6021 <s> GO BOXES
-0.6021 <s> GO TO
-0.3010 <s> OVER </s>
-0.3010 <s> READY </s>
-0.3010 <s> THANK YOU
-0.3010 BALL WHEEL </s>
-0.3010 BOOKSHELF BALL WHEEL
-0.3010 CAN YOU NAVIGATE
-0.3010 FOR ME </s>
-0.3010 GO BOXES </s>
-0.3010 GO TO THE
-0.3010 NAVIGATE FOR ME
-0.3010 THANK YOU </s>
-0.3010 THE BOOKSHELF BALL
-0.3010 TO THE BOOKSHELF
-0.3010 YOU NAVIGATE FOR

\end\
