Language model created by QuickLM on Fri Mar 27 05:00:18 EDT 2020
Copyright (c) 1996-2010 Carnegie Mellon University and Alexander I. Rudnicky

The model is in standard ARPA format, designed by Doug Paul while he was at MITRE.

The code that was used to produce this language model is available in Open Source.
Please visit http://www.speech.cs.cmu.edu/tools/ for more information

The (fixed) discount mass is 0.5. The backoffs are computed using the ratio method.
This model based on a corpus of 12 sentences and 32 words

\data\
ngram 1=32
ngram 2=48
ngram 3=40

\1-grams:
-1.0280 </s> -0.3010
-1.0280 <s> -0.2583
-2.1072 ARE -0.2837
-2.1072 CASIE -0.2583
-2.1072 COMPUTER -0.2583
-2.1072 DO -0.2837
-2.1072 FRIENDS -0.2976
-2.1072 HELLO -0.2583
-2.1072 HOW -0.2976
-1.8062 I -0.2872
-2.1072 I'M -0.2976
-1.8062 IS -0.2942
-2.1072 L -0.2907
-1.6301 LIKE -0.2352
-2.1072 MAKE -0.2976
-2.1072 ME -0.2976
-2.1072 MUCH -0.2583
-2.1072 MY -0.2942
-1.8062 NAME -0.2507
-2.1072 OLD -0.2976
-2.1072 PLAY -0.2976
-2.1072 TEN -0.2583
-2.1072 THANK -0.2837
-2.1072 TO -0.2976
-2.1072 TOO -0.2583
-2.1072 VERY -0.2976
-2.1072 WANT -0.2976
-2.1072 WELL,HELLO -0.2583
-1.8062 WHAT -0.2907
-2.1072 WITH -0.2837
-1.4082 YOU -0.2430
-2.1072 YOUR -0.2942

\2-grams:
-1.3802 <s> HELLO 0.0000
-1.3802 <s> HOW 0.0000
-1.0792 <s> I 0.0000
-1.3802 <s> I'M 0.0000
-1.3802 <s> L 0.0000
-1.3802 <s> ME 0.0000
-1.3802 <s> MY 0.0000
-1.3802 <s> THANK 0.0000
-1.3802 <s> WELL,HELLO 0.0000
-1.0792 <s> WHAT 0.0000
-0.3010 ARE YOU -0.1461
-0.3010 CASIE </s> -0.3010
-0.3010 COMPUTER </s> -0.3010
-0.3010 DO YOU -0.2553
-0.3010 FRIENDS WITH 0.0000
-0.3010 HELLO </s> -0.3010
-0.3010 HOW OLD 0.0000
-0.6021 I LIKE -0.2218
-0.6021 I WANT 0.0000
-0.3010 I'M TEN 0.0000
-0.6021 IS CASIE 0.0000
-0.6021 IS YOUR 0.0000
-0.3010 L LIKE -0.2218
-0.7782 LIKE </s> -0.3010
-0.7782 LIKE PLAY 0.0000
-0.7782 LIKE YOU -0.2553
-0.3010 MAKE FRIENDS 0.0000
-0.3010 ME TOO 0.0000
-0.3010 MUCH </s> -0.3010
-0.3010 MY NAME -0.1761
-0.6021 NAME </s> -0.3010
-0.6021 NAME IS -0.1761
-0.3010 OLD ARE 0.0000
-0.3010 PLAY COMPUTER 0.0000
-0.3010 TEN </s> -0.3010
-0.3010 THANK YOU -0.1461
-0.3010 TO MAKE 0.0000
-0.3010 TOO </s> -0.3010
-0.3010 VERY MUCH 0.0000
-0.3010 WANT TO 0.0000
-0.3010 WELL,HELLO </s> -0.3010
-0.6021 WHAT DO 0.0000
-0.6021 WHAT IS -0.1761
-0.3010 WITH YOU -0.1461
-0.5229 YOU </s> -0.3010
-1.0000 YOU LIKE -0.2218
-1.0000 YOU VERY 0.0000
-0.3010 YOUR NAME -0.1761

\3-grams:
-0.3010 <s> HELLO </s>
-0.3010 <s> HOW OLD
-0.6021 <s> I LIKE
-0.6021 <s> I WANT
-0.3010 <s> I'M TEN
-0.3010 <s> L LIKE
-0.3010 <s> ME TOO
-0.3010 <s> MY NAME
-0.3010 <s> THANK YOU
-0.3010 <s> WELL,HELLO </s>
-0.6021 <s> WHAT DO
-0.6021 <s> WHAT IS
-0.3010 ARE YOU </s>
-0.3010 DO YOU LIKE
-0.3010 FRIENDS WITH YOU
-0.3010 HOW OLD ARE
-0.3010 I LIKE PLAY
-0.3010 I WANT TO
-0.3010 I'M TEN </s>
-0.3010 IS CASIE </s>
-0.3010 IS YOUR NAME
-0.3010 L LIKE YOU
-0.3010 LIKE PLAY COMPUTER
-0.3010 LIKE YOU VERY
-0.3010 MAKE FRIENDS WITH
-0.3010 ME TOO </s>
-0.3010 MY NAME IS
-0.3010 NAME IS CASIE
-0.3010 OLD ARE YOU
-0.3010 PLAY COMPUTER </s>
-0.3010 THANK YOU </s>
-0.3010 TO MAKE FRIENDS
-0.3010 VERY MUCH </s>
-0.3010 WANT TO MAKE
-0.3010 WHAT DO YOU
-0.3010 WHAT IS YOUR
-0.3010 WITH YOU </s>
-0.3010 YOU LIKE </s>
-0.3010 YOU VERY MUCH
-0.3010 YOUR NAME </s>

\end\
